e -0.545673 -0.002013 -0.230249 0.181609 -0.337514 -0.071645 -0.013760 0.046550 0.237185 0.374777 0.400880 0.022852 0.453720 -0.194946 -0.168976 0.012536 0.215704 0.142225 0.324927 -0.072917 0.246666 -0.216312 0.332053 0.184984 -0.467043 0.040747 -0.270643 -0.198244 -0.127097 -0.483953 -0.150281 0.239225 -0.027240 -0.104444 0.154766 0.239026 -0.224082 -0.381541 -0.344099 -0.331260 -0.062659 -0.308081 0.104541 0.452854 -0.254974 0.278353 -0.379108 0.192282 -0.474829 -0.245021
n 0.007598 -0.018492 0.079817 0.218113 -0.038180 -0.360096 -0.003857 -0.012723 -0.050630 0.068370 0.294550 0.138490 0.071096 -0.086161 -0.381768 0.027958 0.229024 -0.012265 -0.184932 -0.141237 -0.088613 -0.415055 -0.198788 0.266686 0.152539 -0.032773 -0.106592 -0.070683 -0.078680 -0.085094 -0.082135 -0.169546 -0.119927 -0.044289 0.108719 0.280830 -0.452214 -0.105939 -0.076905 -0.271001 0.163740 -0.129891 0.047100 -0.117717 -0.150387 -0.010581 -0.017202 0.172471 -0.269543 -0.283848
t 0.003418 0.040604 0.087743 -0.057512 0.208826 0.418670 0.212316 0.081506 0.098614 0.270614 0.207685 0.140692 -0.155003 0.038708 0.131195 0.016316 0.105075 0.217098 0.123367 -0.371410 0.125585 0.159698 0.368483 0.161701 0.013785 0.051628 -0.081733 0.095284 0.020902 -0.121641 -0.007922 -0.022688 0.293074 0.140311 -0.221837 -0.080292 0.018100 0.108795 -0.236483 0.319246 -0.224894 0.130806 0.226331 -0.052780 0.097898 -0.148236 0.101946 0.008212 0.216123 0.301838
a -0.344571 0.184889 -0.136135 -0.001061 -0.299660 -0.421298 -0.132800 -0.091039 -0.077019 -0.328832 0.189344 -0.374620 -0.085398 -0.046820 -0.135621 -0.262988 0.275565 -0.004109 -0.293657 -0.021910 -0.205452 -0.306897 -0.238909 0.057780 0.188282 -0.164714 0.184581 0.113834 -0.242840 -0.207422 -0.150426 -0.265266 -0.002920 -0.404739 -0.260251 0.051756 -0.556538 0.030956 -0.458202 -0.481160 0.058165 -0.067601 -0.336880 0.104806 -0.305930 -0.075534 0.042257 0.039164 -0.344753 -0.141951
i -0.348162 0.182559 -0.165084 0.031250 -0.472332 -0.354447 -0.503783 -0.047818 0.263474 0.099451 0.102827 -0.052123 0.512183 -0.129456 -0.530168 0.012236 0.102976 0.013204 -0.065751 0.131625 -0.000553 -0.579924 -0.171776 0.038990 -0.397691 0.117646 -0.136346 0.086136 -0.048126 -0.369550 0.049988 0.214583 0.115706 -0.075129 0.387494 0.332789 -0.205375 -0.217657 -0.341431 -0.697264 0.290127 -0.120378 -0.052209 0.223902 -0.206204 0.343338 -0.461641 0.141479 -0.312461 -0.286238
s -0.298289 0.183799 -0.142567 0.015461 -0.422348 -0.323547 -0.520309 -0.080353 0.177370 0.017923 -0.034785 -0.136907 0.420229 -0.076683 -0.381703 -0.003964 -0.042135 -0.030504 -0.021473 0.201521 0.046447 -0.370111 -0.174928 0.002245 -0.304876 0.215151 -0.069425 0.045187 -0.056807 -0.196266 0.051580 0.274137 0.080165 0.036984 0.454639 0.201678 -0.034680 -0.143757 -0.294342 -0.561272 0.294504 -0.146251 -0.035751 0.229647 -0.174955 0.380978 -0.433297 0.055446 -0.278889 -0.341196
r -0.110254 -0.178849 -0.082893 0.072615 -0.094257 0.055041 0.168721 0.054629 0.009928 0.180059 0.320819 0.018439 -0.003752 -0.136973 -0.037094 -0.013597 0.220400 0.170860 0.144096 -0.394481 0.091283 -0.099176 0.352799 0.187916 -0.094601 -0.122543 -0.246969 0.004222 -0.047368 -0.253581 -0.134556 -0.134974 -0.067559 -0.010696 -0.163625 0.041761 -0.104615 -0.103860 -0.154750 0.060802 -0.154376 0.063150 0.017417 -0.005204 -0.105388 0.026586 -0.012718 0.043577 -0.136657 0.103800
o -0.282893 0.079549 -0.016035 -0.356792 -0.594746 -0.688038 -0.272229 -0.002655 0.033428 -0.336597 0.007622 -0.403741 0.077037 -0.065004 -0.277267 -0.144553 0.198437 0.113404 -0.549084 0.097037 -0.405326 -0.283615 -0.212647 -0.033972 0.127103 -0.323218 0.019913 0.075554 -0.197943 -0.093909 -0.257316 -0.520475 -0.335176 -0.417216 -0.621520 -0.165966 -0.608651 0.054363 -0.352067 -0.530068 0.092885 0.102451 -0.587483 0.068639 -0.515992 -0.191266 -0.215487 0.067288 -0.392774 -0.221104
h 0.068269 0.073973 0.287806 0.210138 -0.026772 0.015948 -0.024354 0.096734 0.324557 0.577219 0.304941 0.419836 0.401247 -0.168277 -0.620564 0.209473 0.224181 0.139128 0.156002 -0.326346 0.201451 -0.546142 0.036623 0.308618 -0.421354 -0.003785 -0.464312 0.030190 0.089674 -0.416694 0.184956 0.059550 0.162797 0.239249 0.329932 0.567646 -0.199494 -0.214216 0.000146 -0.158505 0.133585 0.205250 0.440865 -0.152936 -0.110286 0.067795 -0.268650 0.211102 -0.005456 0.010470
d -0.395136 0.150479 -0.139685 0.059558 -0.405514 -0.403964 -0.136220 -0.009459 0.235198 0.087666 0.266165 -0.125745 0.322213 -0.175393 -0.334867 -0.054441 0.282721 0.130432 -0.105181 0.027151 -0.067034 -0.392446 -0.122679 0.063716 -0.238127 -0.246165 -0.092476 -0.029425 -0.122096 -0.341916 -0.115176 -0.109083 -0.092354 -0.327080 -0.221330 0.243244 -0.535490 -0.219539 -0.345209 -0.493286 0.072559 -0.101331 -0.172851 0.220625 -0.340996 -0.015723 -0.194636 0.148220 -0.388728 -0.233581
l 0.010722 0.264019 0.045464 0.077677 0.047545 -0.100005 -0.227314 0.033011 0.062379 -0.085670 -0.015520 -0.060622 0.094227 -0.040442 -0.355472 0.009971 -0.043752 -0.329679 -0.261963 0.069149 0.070064 -0.265310 -0.362862 -0.044581 -0.067683 0.361711 -0.009224 -0.021327 0.063309 0.087205 -0.035822 -0.080526 -0.143164 0.148865 0.566620 0.236451 0.004295 -0.226887 -0.021990 -0.189890 0.246774 -0.126617 0.109523 0.006803 0.193274 0.292431 -0.098662 0.079880 -0.001603 -0.366519
u -0.111616 0.076371 -0.081619 -0.037886 -0.227022 -0.555541 -0.375119 -0.085744 -0.147327 -0.452511 -0.268798 -0.194126 0.175742 0.045190 -0.087403 0.040925 -0.228255 -0.313459 -0.363776 0.579615 -0.223545 -0.060468 -0.472406 -0.209445 0.135559 0.226369 0.293267 -0.155499 -0.017248 0.298009 -0.126490 0.074486 -0.354546 -0.069743 0.377955 -0.032979 -0.059010 -0.177517 0.083994 -0.499506 0.272295 -0.497489 -0.279687 0.186253 0.013108 0.245573 -0.239985 0.073596 -0.298528 -0.599001
c 0.084774 0.187997 0.048210 -0.027027 -0.096996 0.135281 -0.308603 0.028865 0.207851 0.213348 -0.013323 0.186395 0.233396 0.057381 -0.317146 0.118959 -0.119188 0.078779 0.116857 -0.031674 0.130040 -0.278499 -0.012665 0.046969 -0.339042 0.288057 -0.036943 0.212050 0.081889 -0.135327 0.252901 0.309802 0.472686 0.255998 0.557021 0.215739 0.350044 -0.066962 -0.178518 -0.231920 0.190225 0.153738 0.202620 -0.030689 0.065826 0.277573 -0.224683 0.075165 0.235714 0.103518
m -0.004679 -0.079294 -0.156543 0.100952 0.002441 0.302375 0.183305 -0.106620 -0.173693 0.060204 0.123253 -0.089570 -0.160292 0.123629 0.231540 -0.112326 0.044341 0.243777 0.394839 -0.231788 0.191026 -0.004970 0.369549 0.158149 -0.073413 -0.041976 0.034524 0.265192 -0.122794 -0.302313 0.131997 0.191073 0.488623 -0.075956 -0.102476 -0.070668 0.154230 0.259266 -0.149837 0.150856 -0.097619 0.258803 0.066128 -0.010547 -0.109880 0.024451 0.202241 -0.177742 0.037327 0.447078
g -0.027724 0.080476 0.063403 0.273655 0.107757 0.014413 0.078384 0.129895 0.161548 0.424264 0.500390 0.281200 0.129553 -0.198857 -0.525300 0.076731 0.366320 -0.012680 -0.082938 -0.406333 0.101444 -0.449488 -0.031203 0.272493 -0.079744 0.122656 -0.356634 -0.087482 0.031126 -0.266548 -0.077400 -0.209459 -0.104480 0.074382 0.227966 0.434816 -0.442025 -0.266897 -0.167205 -0.056764 0.053834 -0.048204 0.272337 -0.100091 0.075027 0.089179 0.025253 0.240718 -0.117637 -0.271423
f 0.334146 -0.227435 0.261921 -0.369800 0.002816 0.164654 0.199607 0.321198 -0.040810 0.106185 0.325497 0.137889 -0.189362 0.004800 -0.159618 0.232329 0.148980 0.125983 -0.464299 -0.512841 -0.205773 0.081517 0.283478 0.123799 0.273539 0.149512 -0.290753 -0.076385 0.209430 0.362027 -0.350115 -0.696638 -0.471419 0.227321 -0.453646 -0.359417 -0.076977 -0.213836 0.088931 0.383463 -0.220671 0.110953 -0.160833 -0.244297 0.158296 -0.112543 0.037661 0.208367 0.190869 -0.122813
p -0.168822 -0.127435 -0.373088 -0.456196 -0.433631 0.258415 -0.447893 -0.087660 -0.141333 -0.263701 -0.216109 -0.333778 -0.084746 0.211791 0.295520 -0.087661 -0.284770 0.262533 0.046793 -0.073070 -0.046905 0.089327 0.476956 -0.048559 -0.137132 0.290359 0.177685 0.463402 -0.046281 -0.110852 0.065231 0.306354 0.551796 0.067803 0.045440 -0.507813 0.670599 0.249175 -0.518129 -0.155229 -0.014154 0.170828 -0.350316 0.183428 -0.009404 0.373606 -0.183397 -0.195806 0.136025 0.454993
w 0.110261 0.075124 0.309497 0.265011 0.111545 -0.139942 0.147565 0.117967 0.230866 0.427483 0.309435 0.324014 0.201743 -0.213548 -0.537526 0.123232 0.305332 -0.012700 -0.059574 -0.287222 0.093519 -0.384691 -0.143058 0.238734 -0.123537 -0.119209 -0.409479 -0.153489 0.052178 -0.173611 0.001828 -0.235199 -0.225590 0.099852 0.070771 0.482835 -0.459016 -0.235901 0.119260 -0.005007 0.068986 0.103239 0.303892 -0.188999 -0.045303 -0.118960 -0.068504 0.232514 -0.085685 -0.203683
b 0.022176 0.087106 0.072671 0.248966 0.131000 0.057570 0.154746 0.028891 -0.034962 0.102975 0.299769 0.040209 -0.014330 -0.048942 -0.214317 -0.001725 0.206297 -0.093467 0.026718 -0.199557 0.157527 -0.212369 -0.034702 0.126297 0.019544 0.069620 -0.115261 -0.090282 -0.033942 -0.043801 -0.020899 -0.167543 -0.069491 0.013933 0.169854 0.269148 -0.160558 -0.148351 -0.013057 0.045845 0.069250 -0.008310 0.176538 -0.057379 0.044248 0.052421 0.132099 0.066650 -0.045004 -0.143526
v -0.585150 0.055337 -0.369901 -0.077780 -0.289930 -0.099331 -0.007785 -0.095835 0.084061 -0.079929 0.149263 -0.369233 -0.050505 -0.099650 0.246162 -0.312265 0.277688 0.197448 -0.035084 -0.019479 -0.130161 -0.010199 0.206947 -0.030394 -0.044604 -0.387781 0.092936 0.107194 -0.245248 -0.420655 -0.178729 -0.116692 0.053840 -0.462092 -0.665372 -0.129467 -0.443254 0.127570 -0.585100 -0.182286 -0.219197 0.001067 -0.290535 0.310091 -0.282700 -0.211458 0.025160 -0.086865 -0.318415 0.195620
y -0.146108 0.012255 0.057912 0.023743 -0.196636 -0.412419 0.086570 -0.092403 0.008957 -0.213423 -0.103891 -0.265644 0.037108 -0.076986 -0.008087 -0.133191 0.138496 -0.014222 -0.094667 0.114382 -0.121122 -0.108758 -0.190695 -0.037613 -0.017828 -0.462931 0.006837 0.014657 -0.119303 -0.207169 -0.053624 -0.225952 -0.257406 -0.330396 -0.440727 0.083492 -0.399233 0.045558 0.064791 -0.182373 0.019217 0.144804 -0.191744 0.025280 -0.345109 -0.255628 -0.001708 -0.073443 -0.287025 0.044676
k 0.465073 -0.064317 0.381420 0.264834 0.224275 -0.008719 0.204704 0.141832 0.121692 0.439498 0.202258 0.495127 0.171275 -0.143199 -0.527512 0.255888 0.080469 -0.025204 0.098514 -0.293121 0.160427 -0.321607 -0.131748 0.289154 -0.147694 0.017726 -0.416989 -0.135925 0.155868 0.040671 0.140577 -0.129251 -0.140794 0.326075 0.357665 0.445544 -0.037746 -0.236637 0.429720 0.172700 0.149028 0.219266 0.385694 -0.382594 0.045267 -0.002349 -0.028379 0.204890 0.122646 -0.117244
é -0.417653 0.215487 -0.502731 -0.353735 -0.052012 0.567058 -0.209946 -0.074590 0.022811 -0.162922 -0.072846 -0.399043 -0.328650 0.241773 0.633279 -0.291187 -0.120845 0.237584 0.130242 0.015906 0.057174 0.447055 0.420539 -0.249633 0.053165 0.147541 0.460515 0.320772 -0.129115 -0.005561 0.015348 0.293618 0.727428 -0.161695 -0.254367 -0.524868 0.449431 0.366787 -0.786468 0.101499 -0.252826 0.015530 -0.224970 0.364822 0.139123 0.057638 0.209899 -0.270492 0.324134 0.490717
q -0.120474 0.207925 -0.288814 -0.213881 -0.019313 -0.301936 -0.605466 -0.230056 -0.329804 -0.933223 -0.876665 -0.455468 -0.006181 0.312101 0.551625 -0.098170 -0.802447 -0.609256 -0.130573 1.243714 -0.123374 0.635420 -0.654988 -0.688439 0.326343 0.573013 0.897386 -0.231326 -0.012904 0.856375 0.043024 0.646289 -0.069976 -0.018393 0.785969 -0.467390 0.699335 0.096022 0.283430 -0.394059 0.302334 -0.801945 -0.372038 0.410250 0.267394 0.434606 -0.165729 -0.232706 -0.007938 -0.607092
z 0.474720 -0.158668 0.476906 0.480935 0.427731 -0.101790 0.338146 0.155353 -0.019271 0.418849 0.270682 0.640548 0.170542 -0.208712 -0.510053 0.375904 0.093827 -0.204165 -0.004271 -0.239293 0.129156 -0.241880 -0.186128 0.354796 0.000546 0.183324 -0.433538 -0.349379 0.197882 0.101069 -0.003089 -0.149056 -0.493104 0.424101 0.524999 0.521479 -0.236457 -0.406145 0.621416 0.224350 0.120851 -0.168939 0.511017 -0.370653 0.250570 0.015682 -0.018546 0.344562 -0.083483 -0.443663
j 0.120421 -0.001725 0.162948 0.178318 0.184838 -0.423674 0.080803 -0.064425 -0.151708 -0.321490 -0.285179 -0.061837 -0.052445 -0.076866 0.061350 -0.034579 -0.125784 -0.328944 -0.179626 0.404917 -0.149209 0.164267 -0.530178 -0.107295 0.252297 -0.158934 0.191267 -0.271208 -0.033302 0.337267 -0.047830 -0.116403 -0.500384 -0.082785 0.018304 0.063195 -0.207733 -0.021091 0.442221 0.000620 0.089210 -0.212437 -0.092497 -0.103068 0.012887 -0.210882 0.123022 -0.008152 -0.196516 -0.325895
ü 0.422190 -0.102686 0.359353 0.266774 0.320099 0.265979 0.354196 0.252978 0.110793 0.538031 0.439845 0.505754 0.104539 -0.125652 -0.401286 0.302896 0.206886 -0.041060 0.087566 -0.452313 0.218356 -0.162881 0.092505 0.246133 -0.093955 0.126539 -0.469515 -0.271733 0.217384 0.162868 -0.026360 -0.253035 -0.316822 0.369931 0.255560 0.348805 -0.022339 -0.414545 0.387545 0.399050 -0.042519 0.060675 0.419439 -0.263317 0.260873 0.028668 0.063686 0.260389 0.187430 -0.203202
x -0.444688 -0.031657 -0.504052 -0.358403 -0.469647 0.013282 -0.463373 -0.202010 -0.069585 -0.426855 -0.394700 -0.432005 0.111165 0.204034 0.506376 -0.139073 -0.322604 0.109748 0.068581 0.526449 -0.137611 0.201617 0.196811 -0.343467 -0.168704 0.009846 0.450178 0.215590 -0.089728 -0.028859 0.075226 0.473992 0.370387 -0.238108 -0.086599 -0.422856 0.481095 0.169891 -0.359785 -0.368509 0.014977 -0.166361 -0.439475 0.477469 -0.096790 0.216432 -0.234981 -0.237187 -0.050225 0.265558
à 0.588051 -0.110887 0.196070 -0.182452 0.444836 0.033933 0.120996 -0.043395 -0.410511 -0.591938 -0.544436 -0.146592 -0.610650 0.231727 0.467787 -0.051475 -0.369177 -0.300857 -0.347173 0.177966 -0.270423 0.523744 -0.351930 -0.252175 0.661451 0.045989 0.419874 0.068685 0.137287 0.717143 -0.013567 -0.243176 -0.230853 0.155588 -0.131133 -0.452925 0.359488 0.355317 0.521987 0.499859 -0.047116 0.118133 -0.152398 -0.414292 0.359054 -0.251385 0.458375 -0.265005 0.435235 0.131443
ä 0.306052 -0.064817 0.316951 0.441395 0.343753 0.106612 0.250175 0.153498 0.116471 0.573766 0.387286 0.635490 0.235657 -0.179796 -0.509345 0.365240 0.153378 -0.073191 0.091169 -0.315056 0.239220 -0.323255 -0.005863 0.313146 -0.173487 0.233932 -0.439785 -0.234682 0.211463 -0.084719 0.041270 -0.020529 -0.204826 0.397464 0.546710 0.543681 -0.162294 -0.401365 0.361325 0.169809 0.102556 -0.137852 0.567880 -0.238050 0.244971 0.115284 -0.038744 0.315499 0.012694 -0.316397
ß 0.083374 -0.002247 0.101297 0.206999 0.257860 0.163144 0.388412 0.168184 0.205004 0.434121 0.364459 0.285319 0.003544 -0.185552 -0.145487 0.054627 0.315797 0.012734 0.074072 -0.340568 0.122253 -0.084613 0.057153 0.114218 -0.070426 -0.191667 -0.320624 -0.170970 0.093378 -0.120639 -0.104381 -0.258751 -0.235295 0.011012 -0.161780 0.267200 -0.345212 -0.227501 0.130703 0.298039 -0.192017 0.044822 0.281332 -0.099767 0.087951 -0.174489 0.138485 0.132828 0.066959 -0.058133
è -0.352290 -0.083622 -0.444785 -0.061571 -0.353661 0.150001 -0.285988 -0.117058 0.034732 0.004995 -0.024211 -0.202342 0.125531 0.003983 0.180783 -0.130964 -0.063004 0.199539 0.319344 -0.018858 0.108808 -0.026883 0.398511 -0.028000 -0.321787 0.074942 0.023953 0.235701 -0.103466 -0.359589 0.076660 0.430162 0.397122 -0.068319 0.116525 -0.135243 0.345560 0.085670 -0.423723 -0.211817 -0.027810 0.029772 -0.140653 0.288543 -0.084862 0.318565 -0.183383 -0.126129 -0.099529 0.272717
ê -0.208829 -0.124947 -0.277246 -0.010955 0.096372 0.449212 0.311628 -0.106257 -0.189647 -0.050954 0.019748 -0.254678 -0.357544 0.115905 0.696821 -0.258908 -0.005299 0.223034 0.427169 -0.160002 0.160302 0.493850 0.536698 0.025924 0.066150 -0.122454 0.181220 0.140428 -0.181639 -0.185406 -0.024999 0.200678 0.354452 -0.171192 -0.467274 -0.399986 0.177620 0.343148 -0.247270 0.395415 -0.371567 0.094425 -0.059396 0.188882 -0.035363 -0.137088 0.289916 -0.263802 0.004233 0.523381
ö 0.341841 -0.175198 0.257187 0.234263 0.339208 0.342058 0.222595 0.152461 0.145519 0.607715 0.206619 0.585590 0.162669 -0.097828 -0.262036 0.261377 0.048389 0.013149 0.272074 -0.325305 0.257916 -0.131491 0.195353 0.242639 -0.203554 0.115880 -0.454677 -0.156695 0.199053 -0.013495 0.149001 0.098334 -0.005956 0.422359 0.406036 0.323387 0.183008 -0.195141 0.355541 0.364442 0.002150 0.108650 0.528992 -0.209697 0.212676 0.074109 -0.057270 0.145738 0.206304 0.049920
_ 0.236806 -0.200114 0.387618 0.153867 0.026278 -0.642843 0.144417 -0.315474 0.078224 -0.468555 -1.231502 -0.148429 0.219828 -0.027457 0.592440 -0.057344 -0.472299 -0.171372 0.459846 1.087364 -0.143051 0.648821 -0.650804 -0.471486 -0.210653 -1.051532 0.309927 -0.164169 -0.006774 0.109330 0.471956 0.531870 -0.387579 -0.357037 -0.543594 0.017594 0.137977 0.406048 1.206223 0.054158 0.029423 0.347114 -0.211975 -0.091610 -0.402734 -0.748194 0.033481 -0.392966 -0.148318 0.448365
â 0.122871 0.007726 0.102243 0.045573 0.198122 0.443761 0.103576 0.065187 0.041799 0.250294 0.077963 0.154934 -0.048190 0.065242 0.006293 0.031650 0.033943 0.053737 0.218269 -0.265567 0.217116 -0.018011 0.247220 0.086355 -0.145119 0.116912 -0.127537 0.110484 0.055687 -0.125903 0.156588 0.121263 0.289818 0.168826 0.168953 0.095222 0.264929 0.047857 -0.003440 0.247482 -0.083344 0.244307 0.256906 -0.085033 0.168548 0.045761 0.096163 -0.032151 0.269161 0.331822
ç 0.565022 -0.421645 0.237841 -0.258628 0.388231 0.205972 0.436659 0.070766 -0.430316 -0.317026 -0.220337 0.004528 -0.671831 0.198407 0.588741 0.023169 -0.137943 0.016258 -0.224777 -0.232527 -0.261636 0.592280 0.185639 -0.038892 0.678377 -0.186025 0.149737 0.018930 0.110100 0.570306 -0.160132 -0.430422 -0.299728 0.119904 -0.631043 -0.600933 0.241991 0.330059 0.467632 0.737797 -0.333655 0.232066 -0.181012 -0.422814 0.213525 -0.429802 0.476453 -0.172440 0.385270 0.371084
û 0.010257 -0.145170 0.061577 -0.349390 -0.024340 0.141100 0.255351 0.169213 0.046793 -0.013672 -0.038212 -0.076812 -0.232373 0.027475 0.370201 0.015380 0.009062 0.174109 -0.128390 -0.155755 -0.143216 0.537597 0.345143 -0.084940 0.170212 -0.093762 -0.031497 -0.053245 0.065794 0.126092 -0.269086 -0.273084 -0.284222 -0.049301 -0.731313 -0.528245 -0.028786 0.038589 -0.000933 0.385902 -0.377398 0.069123 -0.226568 0.060802 0.010059 -0.291691 0.056138 0.014035 0.081904 0.127128
ù 0.003706 -0.003954 -0.002435 0.007043 -0.009337 0.001404 0.006750 -0.001130 0.019668 -0.012109 -0.006257 -0.000185 -0.010547 -0.006466 -0.011346 -0.002198 -0.004639 0.005394 0.003533 0.000738 0.014922 0.013553 0.007674 0.004174 -0.009291 -0.009220 -0.018514 -0.013690 -0.004029 -0.007607 0.012084 -0.002097 -0.013042 -0.010655 -0.010925 -0.019408 -0.004307 0.000630 -0.004834 -0.006876 -0.013423 0.012376 -0.006734 -0.004635 0.000469 0.005996 0.009165 -0.000419 0.009441 -0.003463
î 0.076112 -0.064545 0.009384 0.065882 0.255659 0.282238 0.401541 -0.009322 -0.198718 -0.071427 0.171251 -0.091236 -0.467411 0.143261 0.416454 -0.194692 0.171844 0.148224 0.129051 -0.305115 0.005828 0.260769 0.218879 0.110909 0.351256 -0.197907 0.169546 0.089831 -0.122601 0.019891 -0.036412 -0.132062 0.214112 -0.165610 -0.466423 -0.185892 -0.055413 0.265888 -0.132477 0.371794 -0.283046 0.168626 -0.004531 -0.110858 0.011646 -0.324565 0.480553 -0.145383 0.153306 0.391961
ô -0.016946 0.125214 -0.175332 -0.265199 0.192381 0.532586 -0.078170 -0.079409 -0.028989 -0.165602 -0.302865 -0.157637 -0.294656 0.265247 0.602971 -0.121800 -0.311515 0.113543 0.171633 0.144470 0.059093 0.508880 0.226976 -0.228669 0.059792 0.087950 0.447737 0.238573 -0.007065 0.221550 0.162609 0.321836 0.602125 0.068242 -0.075331 -0.396940 0.629572 0.356662 -0.270189 0.280891 -0.183652 0.107353 -0.029450 0.093433 0.244444 -0.054404 0.216492 -0.260161 0.485889 0.532311
1 0.291237 0.082035 0.098191 -0.101872 0.222868 0.053284 -0.037222 -0.036388 -0.114181 -0.216891 -0.309263 -0.024269 -0.223489 0.191891 0.154052 0.010333 -0.194909 -0.127328 -0.192498 0.200672 -0.134405 0.179573 -0.280646 -0.164663 0.264206 0.050746 0.218634 0.085441 0.094854 0.333925 0.114836 -0.014086 0.036761 0.025887 -0.042011 -0.150169 0.142857 0.214503 0.234576 0.177607 0.063398 0.066736 -0.039301 -0.165232 0.196205 -0.139771 0.190738 -0.132883 0.289225 0.036033
8 0.034084 0.031480 0.017360 -0.009405 0.028681 0.012205 -0.008975 -0.004184 -0.025699 -0.038957 -0.044244 -0.005897 -0.049668 0.058362 0.034650 0.002303 -0.034195 -0.034112 -0.028416 0.016953 -0.030409 0.023636 -0.041842 -0.034928 0.043561 -0.010056 0.034300 0.013246 0.008871 0.071204 0.013833 0.004173 0.014379 -0.007946 -0.004883 -0.022152 0.036493 0.049533 0.034238 0.030023 0.013948 -0.006479 -0.012983 -0.018804 0.047076 -0.025879 0.033565 -0.010374 0.054888 0.006791
ï -0.159171 0.101542 -0.254796 -0.250248 -0.080051 -0.219899 -0.368527 -0.180019 -0.244789 -0.682214 -0.645906 -0.415367 -0.120693 0.214894 0.503745 -0.147847 -0.488106 -0.313997 -0.122648 0.838686 -0.171864 0.513365 -0.366448 -0.534502 0.283662 0.170272 0.629099 -0.106982 -0.068617 0.521112 0.025850 0.316490 -0.054266 -0.181574 0.188762 -0.446168 0.380679 0.207878 0.128459 -0.215422 0.128788 -0.384201 -0.416660 0.294805 0.052478 0.121927 -0.019951 -0.216437 -0.006743 -0.252537
3 -0.001277 0.025985 0.008064 -0.006789 -0.010715 -0.005824 -0.000895 0.000330 -0.022453 -0.013571 0.018231 -0.008387 -0.027075 0.028913 0.003076 0.001571 0.004225 -0.022650 0.008186 -0.017661 -0.015023 0.017613 -0.014332 -0.020629 0.027012 0.002330 0.019622 0.018787 0.006789 0.012319 -0.018513 -0.016643 0.018933 -0.005367 0.000214 -0.001249 0.009694 0.026269 0.002579 -0.001775 0.011285 -0.026927 0.002356 -0.017666 0.026740 -0.007225 0.019903 0.015214 0.009505 0.006929
6 0.048429 0.008414 -0.001042 -0.021567 0.059769 0.018852 -0.024755 -0.009374 -0.003451 -0.031567 -0.073125 0.004995 -0.025999 0.030024 0.029308 0.010067 -0.036791 -0.011256 -0.052439 0.045008 -0.010028 0.013314 -0.042197 -0.017843 0.035737 0.012021 0.023408 0.016046 0.011327 0.056982 0.043905 0.007456 -0.002844 -0.012470 -0.004176 -0.021645 0.022555 0.030371 0.030119 0.027078 0.010374 0.017211 -0.005914 -0.016454 0.026085 -0.022984 0.033837 -0.045355 0.054670 0.002011
2 0.013437 0.028451 0.000577 -0.010218 0.007902 0.005453 -0.016930 -0.003142 -0.019699 -0.028127 -0.011408 -0.000298 -0.038439 0.045909 0.019539 0.008133 -0.023035 -0.020119 -0.027217 0.005734 -0.020815 0.024644 -0.034373 -0.026638 0.028836 0.003630 0.024735 0.027652 0.018441 0.021930 -0.002230 -0.015121 0.023460 0.002360 -0.007029 -0.029412 0.002228 0.034273 0.015239 0.016006 0.014021 -0.022858 -0.008306 -0.014240 0.033707 -0.023814 0.026062 -0.008584 0.037328 0.004389
0 0.005666 -0.001771 0.010380 0.007871 0.030529 0.017562 0.003090 -0.011669 0.006964 -0.021698 -0.045526 0.014120 0.014869 -0.016178 0.023223 0.000002 -0.026705 -0.018379 -0.018044 0.014589 0.009884 -0.024350 -0.021576 0.011263 -0.005931 0.001629 0.007814 -0.023259 -0.008899 0.024431 0.017106 0.008563 -0.002551 -0.027062 -0.019452 0.004369 -0.010186 0.000354 0.011145 0.023823 0.004167 0.028038 0.012070 -0.018993 0.010220 -0.005945 0.004900 -0.017273 0.022402 -0.005206
7 0.045418 -0.002350 0.005951 -0.037807 0.045058 0.015205 -0.033389 -0.002663 -0.005159 -0.019925 -0.050704 -0.022297 -0.022781 0.031414 0.026684 0.007529 -0.014358 0.009515 -0.044393 0.063044 0.002380 0.031214 -0.042474 -0.012250 0.038037 0.022131 0.033488 0.039818 0.020007 0.045604 0.030284 0.012157 -0.005969 0.016157 -0.018577 -0.018860 0.032510 0.030644 0.031967 0.032586 0.016006 0.019495 -0.008680 -0.012297 0.015866 -0.024778 0.015618 -0.051104 0.051945 0.007854
4 0.018549 0.012261 -0.006119 0.009652 0.011621 0.005742 -0.000974 -0.003601 -0.009961 -0.011669 -0.011271 0.001485 -0.029082 0.026852 0.012276 0.010576 -0.007339 -0.003232 -0.010600 -0.008461 -0.023008 0.002529 -0.007816 -0.020035 0.019490 0.008185 -0.006777 -0.006727 0.008041 0.027864 0.014119 0.014974 -0.005487 -0.004482 0.002200 0.003790 0.017128 0.014692 0.018571 0.004646 -0.002881 -0.011993 0.002970 -0.002597 0.016705 -0.005358 -0.001549 0.004132 0.014166 -0.014408
9 -0.000744 -0.003967 -0.010589 -0.003909 0.007383 -0.012220 -0.016694 -0.003996 -0.009562 0.010706 0.000788 -0.008001 -0.001706 0.002150 0.002828 0.010522 0.003991 0.008845 -0.004914 0.013813 -0.003237 0.017995 0.007301 0.013344 -0.001857 -0.000870 -0.007257 0.026130 0.018110 -0.008999 -0.009737 -0.012951 -0.007070 0.007834 -0.016702 -0.006028 0.005442 -0.003642 -0.000394 0.016647 0.008373 -0.002260 0.012679 0.004093 -0.004107 -0.005428 -0.007403 -0.008381 0.000652 -0.006324
5 -0.001914 -0.000925 -0.000749 0.009540 0.005525 0.008312 -0.001278 -0.008879 0.000084 0.009076 -0.007263 0.002364 0.011236 -0.011967 0.011856 -0.001793 0.004002 0.005331 -0.004781 0.007393 0.017658 -0.014292 -0.010574 0.002194 0.006291 0.011249 0.013731 -0.018901 0.000756 0.009901 0.017859 0.001942 -0.010481 -0.014062 -0.017221 0.016876 -0.007935 -0.002606 -0.011272 -0.001823 -0.007012 0.022330 0.017786 -0.008153 0.005441 0.003105 -0.007964 0.007433 0.007319 0.009578
æ 0.041901 -0.008236 -0.045072 -0.048674 -0.002268 0.062804 -0.031792 -0.023553 -0.038835 -0.051421 -0.095263 -0.037981 -0.047430 0.058965 0.122360 -0.018079 -0.092788 0.017402 0.060750 0.074146 -0.006146 0.090335 0.032547 -0.076261 -0.005830 0.014544 0.096460 0.064511 0.008334 0.025248 0.060583 0.079651 0.101986 -0.003072 0.019883 -0.091575 0.166636 0.061167 0.018027 0.042609 -0.012636 0.061239 -0.032209 -0.005162 0.041121 0.023752 0.046991 -0.046578 0.077090 0.101496
<unk> -0.002575 0.003285 0.001853 0.004206 -0.004264 -0.006171 -0.005739 0.000493 0.001846 -0.002168 0.000339 -0.005936 0.000946 0.002683 0.001569 -0.000887 0.001801 0.001034 -0.002822 -0.002223 0.001842 -0.001152 -0.002743 0.004680 -0.001664 0.000684 0.003752 0.002865 -0.001622 -0.000203 -0.000680 0.003999 -0.003262 -0.001518 0.000044 0.001204 -0.001814 -0.004219 -0.007327 -0.003623 -0.002216 0.000679 -0.002974 0.002996 0.001272 -0.002116 0.000500 0.000435 -0.003224 -0.000755